,n,m,0,1,2,3,4,5,6,7,8,9,10,11,12,13,14,15,16,17,18,19,20,21,22,23,24,25,26,27,28,29,30,31,32,33,34,35,36,37,38,39,40,41,42,43,44,45,46,47,48,49,50,51,52,53,54,55,56,57,58,59,60,61,62,63,64,65,66,67,68,69,70,71,72,73,74,75,76,77,78,79,80,81,82,83,84,85,86,87,88,89,90,91,92,93,94,95,96,97,98,99,100,101,102,103,104,105,106,107,108,109,110,111,112,113,114,115,116,117,118,119,120,121,122,123,124,125,126,127,128,129,130,131,132,133,134,135,136,137,138,139,140,141,142,143,144,145,146,147,148,149,150,151,152,153,154,155,156,157,158,159,160,161,162,163,164,165,166,167,168,169,170,171,172,173,174,175,176,177,178,179,180,181,182,183,184,185,186,187,188,189,190,191,192,193,194,195,196,197,198,199,200,201,202,203,204,205,206,207,208,209,210,211,212,213,214,215,216,217,218,219,220,221,222,223,224,225,226,227,228,229,230,231,232,233,234,235,236,237,238,239,240,241
0,22,11,0.23650255308404888,-0.23740358735329173,0.03878853990459841,0.2274026082091168,0.26200932578169,-0.07021742453739084,0.27249526812711583,-0.14584348961784493,0.19158604177738137,0.24562380569868594,-0.17333135406046882,0.13574872821684103,-0.07927184536664517,0.20958368876419162,0.04535415869932012,-0.1453861569445578,0.1480705250805501,0.10083426276072788,-0.11761162561144384,0.06785760285010008,0.040813576995637105,-0.19425438974123851,0.053787399287517856,0.24414758730256947,-0.28296506643170444,-0.21802727605705166,0.2509099823707408,-0.07847968126320906,0.025816899568639955,0.2500064794269953,0.016997419386279498,-0.0690518893376822,0.2460871187630079,-0.11565736288121276,0.20004874083484622,0.13648241024410204,-0.1963966413107167,-0.2845806845406568,0.025627708484486103,0.22410676424216633,0.22633020359760608,-0.29914663984620954,0.042054528463959004,-0.10519841901765833,-0.22605146770747775,0.2839540527897453,0.05804231875103152,-0.07965567822033691,0.12372146804049125,0.21601186179181145,-0.2154085853220976,0.28614578586313155,-0.01761606622227496,0.20304778372042898,-0.17745658826432448,-0.1877165091091446,-0.18254821746197145,0.23672524198901282,0.13046499007807386,0.09537996764115797,0.2480043957645646,-0.03433937132818596,-0.20725636562517105,0.29100971286536914,-0.19444998248571574,0.2000408431165864,-0.25146823631397447,0.1705403133781512,0.1064826674180516,0.2518265402877969,0.19828943133994625,-0.03073959875039753,-0.27545337335571846,-0.15592924304864478,-0.13945007642448073,-0.05040007474653954,-0.17901532424466948,0.14482012814172088,0.21570615457100922,0.10122408033901875,0.10345121914794914,-0.10510067206164896,-0.08482656870138404,0.25854100855387296,0.29016310579330923,-0.018300484782151648,0.2793784102540535,-0.2942479448292391,-0.09400470215901874,0.009973864587061081,-0.07487678575180788,0.17445432038905084,-0.08621077978281468,-0.2454171406324936,-0.2019759597633756,-0.113515291777879,-0.2598349264010124,-0.2891222191142102,-0.0508238626173018,0.27058431006748235,-0.21183341369503628,-0.24799242042231565,0.13078864673710336,-0.05182168057117128,-0.1153890480400891,0.06398665680946976,0.1996907150175516,-0.07480466607844757,-0.013364841627973566,-0.23922970304149035,0.09811594448624385,0.27219848274062647,-0.04600268585260818,0.046394419936575226,-0.229113598515835,-0.29262104334263667,0.16609687355263342,0.29203631366831023,0.21591002703341675,-0.13985892724735444,-0.2014240024979946,-0.15693287694775734,-0.301925437380663,-0.09885493293607373,0.05107982814582427,0.08893445019260494,0.11690649974665818,0.04706587275108503,0.09195078657008274,-0.1698768598622315,0.14292703515076682,0.11911899779829607,0.22054721607830113,0.0012887639290733955,-0.051939040914422134,-0.2723938272830796,0.015538233142418367,-0.12927176896305095,0.20695720074927892,-0.1904142003405124,-0.06264849811883454,0.026098593935666593,0.08672181882615831,-0.26998290001872266,0.21927604122132455,-0.24669381010280267,-0.30448198811270116,-0.09501579262204833,0.12535222485065847,0.2512541086608815,0.19170561979760692,0.18542296141720188,0.15839840127992239,0.15754405446971814,0.3035362923306049,-0.10615054239316836,-0.27839824483224385,0.21544084237836458,0.12436926282632287,0.22886798067996575,0.23028566959606664,0.17574285313234533,0.015690330155716647,0.030836801772276864,-0.0069777841291153615,0.1394265597874911,-0.26156372901794434,0.1937113227889358,-0.0418465105513554,0.08808167567954582,0.23442741193559602,0.17976588543994848,-0.2760434579379278,-0.2877463591897448,-0.226773416109143,0.09005584313628953,-0.05194448406133418,0.02257537617670452,-0.1117881442099909,0.011643909765400681,-0.01109763785813484,0.1768651799799459,0.23851319807648366,-0.28178792662461044,0.0540432084046712,-0.07774250667983526,-0.16801344747729818,0.08581414913874215,0.2087435505338786,0.16786333980805196,-0.00634377964161988,-0.07806713970226256,-0.09269776612701762,0.11743411336264466,-0.23985755477046694,0.2611074783633563,-0.06705289885779328,0.25222201207389033,0.270668475119955,0.1048187313845546,-0.15901033662921704,-0.22492678864650753,0.09956207277763769,0.06879287964904472,-0.18319228019670294,0.18208086374010415,0.22366650372412325,0.27508200877107325,-0.14451742075076765,-0.022720598945953036,0.2517706976748526,-0.06084365847168071,0.17769171314877055,0.3058792969446418,-0.22547711423411096,0.2626689041774479,0.14322430600399189,-0.2152376236551353,-0.18185413697832004,0.019320083029855235,0.28447212705811936,-0.11667781016176926,-0.01919399682014345,0.021865955914061694,-0.014482203180196338,0.12068288497925733,0.13642688806938597,-0.021930822038071385,-0.16937421441389472,0.28391681746687003,-0.023337371186764617,-0.14400209034465636,0.14477726119966233,-0.1581900477605195,-0.1761100244569033,0.10691687181419982,-0.2460459236129007,0.1754107889402553,-0.16137835148519902,-0.25084580477893814,-0.11998758235689465,0.12286213887214198
1,11,22,-0.12904564989555153,0.00752066454886454,0.09244666233834092,-0.05654306953358945,0.14398663954319163,-0.0239899881214942,-0.1427888629055074,0.031235076479980958,-0.000781833251027999,-0.1399967766450883,-0.08083436275558267,0.011358279553133179,-0.06741547094641301,-0.17743583344964084,0.017872298673820404,0.16530587590824503,-0.01746585655028096,-0.1637783284894534,0.14579619454794407,-0.05854353264829583,0.0218883382461055,0.1195004577561472,-0.09597006576557603,0.12261156998929743,-0.027368222039276992,0.048318068094049454,-0.031952044604647366,0.19569705021010594,0.0910570362306574,-0.12491814846028851,-0.008496630551531362,0.11175491784597766,0.0956877412633759,-0.018415821035661067,-0.16802314016389208,-0.2001226000167459,-0.1507186840047722,-0.18020482452246228,0.13131264219806046,-0.1148068232848989,-0.02017046994662367,-0.141985748938193,0.05059750420779095,-0.1940059581823377,0.1783840950543789,0.050339265519210835,-0.08090301530505566,0.18389366830991052,0.1729965250050175,0.07006593549183332,0.021777829863314915,-0.1999808202278306,0.20069007092341296,-0.08649273618366105,0.14426195571547418,-0.05625345467776814,-0.057858449351042784,0.12950853727478712,0.2036619350890052,-0.17032970190558416,0.015349500099432879,0.131323041166924,-0.04454975888099537,-0.10835912315332563,-0.15051982975591086,-0.07796551351215945,0.007684952386290078,0.17807533619632804,-0.13623875916958364,-0.16981063828362272,0.11449863903162945,0.14759045931761794,0.1982322960868208,0.15550798803482208,-0.18790469403361373,-0.18242459777815612,-0.03801502261461142,0.12906263178156524,0.023524214816554864,-0.15243752300316316,0.23123820061677167,0.19036452339296417,0.11487233325001044,0.0012773562730857264,-0.1613529438060119,0.10281734771454824,0.1974394427070206,0.13745925519344526,-0.20575796730830387,0.16243093127318642,-0.13061899491219275,-0.13854428439486927,0.03919791790119917,-0.09764686671699399,-0.012086909383406572,0.10472697861170262,0.10620556058944831,-0.03656829606310566,0.10680565858321078,0.10144283106314077,0.019891424770083148,-0.13396226070590622,0.11908625499481669,-0.13976105890303137,-0.0018965773181842851,-0.01305177069975537,-0.012416939290644087,-0.06430754431127239,0.028062043601564772,0.09690532163138313,0.04091587858245212,-0.09715904618359429,0.13296074462618995,0.01927085817711527,0.11935398147749024,0.12132161358337626,-0.0794269815387084,0.03553424222853489,-0.004773714525281842,0.03415270302750901,-0.138200185616746,0.12210379300705981,0.1354439946564988,0.09590988972438176,0.15256104688916322,0.19315984896660693,-0.13850219298150182,0.0914356690361726,-0.2008101434331514,-0.14076963832581765,-0.1400130661081957,-0.20606549145420974,0.1125831787920038,0.049248956707973676,-0.08772794786697269,-0.05672196770373622,0.12605387386037775,-0.00011062906369198925,-0.2468437967799411,0.13380198596912526,-0.07945684433261022,0.16522905655700804,0.08652604307371822,-0.1885935932278155,0.12664923662193622,0.1773549179623222,0.057090633603695505,0.12888262277423898,-0.021554137062576875,-0.045280938660990006,-0.053945842987749716,-0.060029449731200724,0.052587481974043226,0.18821143974893562,-0.10613767913562464,0.09149097027418826,0.013715119372315347,-0.14183816066564525,0.16312703544668172,-0.0035360603863402533,-0.021815773533417748,-0.1892349774865124,0.153014222835668,-0.11473799723649758,0.11707159746707733,-0.051192315149045514,0.013356515327877785,0.1274500424329043,-0.08443765480940171,-0.11054823917254525,0.18156551548033664,0.1393107346393723,0.16563640257143797,-0.039349635610483706,-0.09410922978317705,-0.11136777049706985,-0.046396075750128066,-0.15932220635040603,-0.18871196637829124,0.196232135973103,0.19174914675211088,-0.1361064022593191,0.07407717032990356,0.1701611521596154,-0.1788311854389085,0.16458538118693908,-0.14564891696967097,0.15660476163708287,0.1708291028743218,0.18121126267510554,-0.03758544687044726,-0.13846252931434852,-0.11911366116583973,-0.1161309525044183,-0.067735390498136,-0.13871388038991553,-0.20850157644702,-0.1905877918248689,0.0875531914006845,-0.15598025826886305,-0.03154312633447286,-0.0978520210863573,0.05214797354495079,-0.14058233447609259,0.05074680642132668,-0.1340642589742274,0.07620404866628402,0.1983268506546915,-0.07874295881410155,-0.09240491248109822,-0.10606373003776458,-0.19095598780798137,-0.0680243180518863,0.17892870946816858,0.13871034368934435,0.06983097151094596,0.10795901964745142,0.09551867486098976,-0.1757232600743953,0.05511348663858462,-0.17883167641632536,0.17605293704266028,0.042282350513577656,0.09312780132851499,0.13860474311018867,-0.09306470717683954,0.17962140344439373,-0.21194464809737112,0.03681181450681289,0.029339267204277344,-0.09706275012463929,-0.18479718465705275,-0.1807899550365521,-0.042329753267447506,-0.1711535498051003,-0.15161327124683835,0.00020480609327226145,-0.20841010575668775,0.08726246209878809,-0.028146515325087537,-0.18356101130627409,-0.04540012611990036
2,5,11,-0.043232981892372395,-0.20468022142636927,0.10949257246740336,-0.25445541615592476,-0.29707855990961723,0.2074633388132325,-0.25285146819314575,-0.2704565895637167,0.2398611579764878,0.15481410889247396,-0.07525218698479737,-0.019170553435682445,0.15956838584094943,0.03350528806931438,0.22837478398731498,-0.21971736038698958,-0.23446977250900775,-0.13234271204411363,0.028489386663260438,-0.17660347420607447,-0.1840293459556756,0.20934285180517703,0.14997477708072526,-0.07153927119540467,-0.08443323228222861,0.42340517237663416,0.05577072528463929,0.24857291468808088,-0.30046772431151036,0.13479705677003442,0.20810017739362688,0.14898089585991636,-0.2446325052662724,-0.06377794602271625,-0.028910955111826443,-0.20523665490176368,-0.20083333671478543,0.09359478309476814,0.09244188954619358,0.09560174577599548,-0.2949227884178476,-0.14004996578686338,0.297675547571455,-0.15409856409489436,-0.072895149710502,-0.17017872771273415,0.0492239603296985,-0.1520165503605002,-0.06247586400115871,-0.2536387852568002,-0.15296043408894403,-0.17550049217731828,-0.2470870636450514,-0.2899174861018832,0.19713261144940925,,,,,,,,,,,,,,,,,,,,,,,,,,,,,,,,,,,,,,,,,,,,,,,,,,,,,,,,,,,,,,,,,,,,,,,,,,,,,,,,,,,,,,,,,,,,,,,,,,,,,,,,,,,,,,,,,,,,,,,,,,,,,,,,,,,,,,,,,,,,,,,,,,,,,,,,,,,,,,,,,,,,,,,,,,,,,,,,,,,,,,,,,,,
3,1,5,-0.01065020896990649,0.20373680964828614,0.4277340939692004,0.013591929824989881,0.07559890841212122,,,,,,,,,,,,,,,,,,,,,,,,,,,,,,,,,,,,,,,,,,,,,,,,,,,,,,,,,,,,,,,,,,,,,,,,,,,,,,,,,,,,,,,,,,,,,,,,,,,,,,,,,,,,,,,,,,,,,,,,,,,,,,,,,,,,,,,,,,,,,,,,,,,,,,,,,,,,,,,,,,,,,,,,,,,,,,,,,,,,,,,,,,,,,,,,,,,,,,,,,,,,,,,,,,,,,,,,,,,,,,,,,,,,,,,,,,,,,
