,n,m,0,1,2,3,4,5,6,7,8,9,10,11,12,13,14,15,16,17,18,19,20,21,22,23,24,25,26,27,28,29,30,31,32,33,34,35,36,37,38,39,40,41,42,43,44,45,46,47,48,49,50,51,52,53,54,55,56,57,58,59,60,61,62,63,64,65,66,67,68,69,70,71,72,73,74,75,76,77,78,79,80,81,82,83,84,85,86,87,88,89,90,91,92,93,94,95,96,97,98,99,100,101,102,103,104,105,106,107,108,109,110,111,112,113,114,115,116,117,118,119,120,121,122,123,124,125,126,127,128,129,130,131,132,133,134,135,136,137,138,139,140,141,142,143,144,145,146,147,148,149,150,151,152,153,154,155,156,157,158,159,160,161,162,163,164,165,166,167,168,169,170,171,172,173,174,175,176,177,178,179,180,181,182,183,184,185,186,187,188,189,190,191,192,193,194,195,196,197,198,199,200,201,202,203,204,205,206,207,208,209,210,211,212,213,214,215,216,217,218,219,220,221,222,223,224,225,226,227,228,229,230,231,232,233,234,235,236,237,238,239,240,241
0,22,11,0.11573397099584995,-0.2607733035088149,-0.25115449404040585,0.03533422738582529,-0.15874530183515279,0.05980996351135208,-0.1596713329713658,-0.13739198645933376,0.16467664732375187,0.058126903690073915,-0.21601063757271438,-0.2057220274285279,-0.2253633610175736,-0.20349359407043816,0.16132781531734958,0.012602047561447461,0.01644486043041855,0.21849752549255405,0.12541381374477448,-0.05561003248618886,0.29150032626284156,0.2836964750098431,0.16542360491568078,-0.05139622219656753,-0.13780224642989544,0.10243929782342083,0.033954888857907047,0.04680320913612847,-0.04367352938030856,0.15910004845152217,-0.11235927355381954,0.1488623602046326,-0.010804801190459928,0.046002379873785124,0.12817341378491687,0.195931693378785,-0.25149076704118356,-0.057390463302574406,-0.3000339630035138,0.2517269125803885,-0.11906147797969628,-0.06617784560552754,-0.1941934218569023,-0.15971294703947406,0.27192686994464177,-0.040107975171477774,0.23466717155436675,-0.08453404301600367,0.20630661399987457,0.017956863571389023,-0.12083928784380343,0.20723354913830233,-0.30854744770085485,0.052280548326640974,0.03566504584186289,0.09740768887000201,-0.3004989387727637,-0.10828917890380756,0.06348762072473613,0.04245470321789989,0.06335519064366205,0.07371237781606337,-0.0790422005361318,-0.24039804664486358,0.0411106250372162,0.2528092514632926,-0.11581587386761553,0.09377892610423724,0.06791376242717939,0.011766226935642216,0.2842528440780881,0.20729271476171887,-0.2870279107797995,0.24529420153496256,-0.08702392979410467,-0.28029812080119426,0.0423361663296688,0.0697918312175923,0.16088861539153548,0.12943200865764962,0.1065410856845816,-0.27827821045932966,0.12258695712360378,-0.07010027308267894,-0.17704188190888517,-0.17875213288278005,0.13035790937025524,0.049182123890440396,-0.14047571873594716,-0.24014708939957768,-0.01850205504609923,0.1732057771072191,0.2830826487232072,0.1350554196519665,-0.3026113757914507,-0.00817396545541635,0.10978497414403258,-0.040563401152542755,-0.12549116430962898,0.061127959343351385,0.024797407941756677,0.2064606985660519,0.262953390825775,0.07288666951307539,-0.19484294341740305,-0.24255270176169028,-0.23638702268904274,0.1206652046144533,-0.2422284632889908,0.10261936253473752,-0.016775832160334327,-0.22454719889451563,-0.2917180771282017,-0.16740708081303213,0.2006798770737918,-0.05663139189350208,0.17643437799283132,0.21824296582360922,-0.1317470676826538,-0.011990154891769146,0.25908672956642853,-0.22974244249207612,0.003933156523446743,-0.18624304382795737,0.004501272872826785,0.1916219500894688,0.20060807344467896,-0.1942614238458913,0.18077662899352046,-0.014659655392512514,-0.0009672985139857907,0.19541242739813772,-0.2894140775723887,-0.24992405586105793,-0.10188021878057435,0.22711179971807532,-0.28190658241809385,-0.23353106400504134,0.1470841781773645,-0.06028354886144552,0.07963079589934632,0.10126049817719172,-0.2225097794929025,0.0785108850487971,0.1206731001385945,0.0825129858356483,-0.19619728046639953,0.04067915866801552,0.04127405231994608,0.05826642878463496,0.11161924418372025,-0.26329416631091995,0.18099077355264745,0.04925865910344267,-0.26592218438940196,-0.19894648444767052,0.13763799481686317,0.2049072598212254,0.19592765594195918,-0.2469599762860451,0.03169184701434681,8.042881410850764e-05,0.14487680285887877,0.2696809935293999,-0.15390195356999872,0.03955614639827467,-0.15953971038003292,-0.24601709845027356,-0.002656033095079844,0.25911525885417624,0.23058614012707204,-0.16694604154344214,-0.10773821058637334,-0.062116572975997,-0.22117044577220876,0.14430949527328915,0.2286788240190255,0.22875147930902745,-0.013051387574255398,0.12314959454313354,0.3001542843457475,-0.024875975655709648,0.047109027802909896,0.09971311938673705,0.2327557117888319,-0.12484394108321584,0.12606464242818557,-0.17922698702264128,0.0037502407071773364,-0.3021655845068778,0.03789566666915856,-0.12026109398090064,-0.06363166640913616,0.09546244113771114,0.24922355580212277,-0.12434952516474919,-0.2375719496785456,-0.1461260456470947,0.17147777803555042,0.0588463076134916,-0.05194917346331024,0.05023056647518148,-0.12271461397085437,-0.15851511309445626,0.12444472267491385,-0.09743712116959598,-0.045889023118101634,0.12529310619665004,-0.14132756494502938,-0.1091908467959438,-0.2715650224306195,-0.01752631970080393,0.109647515252857,-0.14689663169364794,0.06677630453816005,-0.2070333548181769,0.16964979839356312,0.03615832364546122,-0.2455269664156777,-0.11178923327799556,0.007423522761776418,0.007651690647736383,-0.2141062463039439,0.10840496559832935,0.2815994394580189,-0.2920108612164567,0.2664337552306262,0.04609879307807776,0.1877266154689766,0.014120426690269089,-0.26664808235709614,0.17751617630050945,-0.23742312744968608,0.26642474092362806,-0.2979071181961939,-0.15840802045084548,0.015974286919535535,-0.07436565115447084,0.17607965267499276,-0.26229040723485264,0.18799724396420353,0.0759696981351133
1,11,22,0.12920356154312598,-0.07415072598137473,0.18538011566240195,-0.07508854892803148,0.1689139406970927,0.05090783572511902,0.03708958122926505,-0.07747029004405198,0.06994934484499292,0.15915691294609063,-0.12379881712764243,0.10092190672001755,0.104885014070159,0.10548974948864676,-0.1227429525940109,-0.19631693635654707,-0.11677427639885438,0.030506710787738926,0.01442562980756518,-0.0002608603473493185,0.03607207981958314,-0.2148124873586263,0.18269983478804802,0.11079654948034076,-0.12067865979812493,-0.19847834947704404,0.16890858611445111,-0.20038767120539588,-0.006592499736692075,-0.13140618694656636,0.11819713180348027,0.21771199386633744,0.12627353345845096,0.10857426670714108,0.14163497472381933,0.12520101057302846,0.20297978448435736,0.10654973309585916,0.18422265524451661,0.043020375128810275,0.14796505361883738,-0.13936931062554783,-0.13783799555022674,-0.15056375993171459,0.16418580458766918,0.15751133941306256,-0.15548406432295653,0.09089951386004406,-0.12414165153669282,0.17044961239910722,0.11775276777311255,0.1577375112859318,0.03266409861877759,-0.030562979373951756,0.18768799138841202,-0.017560462921772216,0.17517379949444997,0.03130740167462772,-0.1860253915933544,0.08489842168493954,-0.052596289308698224,0.13907003400987158,0.12006255119816996,-0.07600192555862338,-0.16649369325784533,0.09304849406666486,-0.06816518200467112,-0.04419924327907809,-0.1790030746342529,-0.21114577980179225,-0.1285840589145093,0.20184547726931487,0.1263414893371792,0.06650914511974305,0.05297887459510937,-0.04900376315680361,-0.20167431383182485,-0.016780189241064274,-0.12100065336158024,0.10920235408631528,-0.193646058940667,0.06557426813965314,0.16774091973066144,0.15333985406422596,0.16777623750710047,-0.18537484467555074,0.11558556541651074,-0.19221532666217467,0.06380929075650336,-0.050933633753832606,0.001837906758693506,0.21670671463395244,0.13627834268962818,0.19695668134465794,-0.022108544538920395,-0.03754412440196209,-0.1057925039208765,0.07640853811932209,0.10129750766533348,-0.028796200695114016,-0.13260445504257373,-0.16291590631209618,0.1299515704404913,-0.18032571889356855,-0.14282709189374396,0.20985376634991312,0.028396653394117816,0.01370092291379471,0.00465493538674701,-0.02548102772047829,0.029163536166830633,0.09438565761295173,0.15980596790353538,0.08894206139010209,-0.14550662784558233,0.011190768891663313,0.16921423285197396,0.06253722615414964,0.10311159931395235,0.18108755420611783,-0.040597863963375225,0.06644102827064964,0.14723827613870052,-0.05474973421850456,-0.010513365360692008,-0.060031738967803214,0.18820596722582483,-0.21015562376795371,-0.03395612321329743,0.18006016239069286,-0.0031756550987702896,0.1833332142623773,-0.029339135189991646,-0.029900873310050008,-0.03611252970705696,-0.183746057396563,0.20739965276272967,-0.09537278220153715,0.21904459974616017,0.020858076140991094,0.1435382329449909,0.18530537169810507,-0.0290040455232107,-0.10910806609870052,-0.07029116317225124,-0.1931101382188018,0.15082994329050448,0.002433218207287198,0.21061568890593066,-0.08982136791590702,-0.11388892342191181,0.2063365625245613,-0.0854665473805886,-0.14907008054322504,-0.08528618002171366,-0.06049383527397968,-0.09776337007368989,-0.016758452990237472,0.1259124846719963,0.0928536298865542,0.08666942644601969,0.08732264895193576,0.04814089266313146,0.08911168506515031,0.027632741744325562,0.18271871880121554,-0.1627950299521823,0.07983222577104926,-0.20376865826933155,-0.01384694498693428,-0.11073978083707828,0.21074382491316107,0.12565525882008546,0.20229095065225375,-0.033932965399111385,-0.08302242712677713,0.09744225999243869,0.1559177238159123,0.199916753552624,-0.11849269655723918,-0.06944498998331439,0.16029656715903762,0.014358332741756914,0.1672017025049609,-0.14399324056105098,-0.09453247509899823,0.21091273954421413,-0.07569010426853824,0.19684202027786968,-0.17575067882803788,0.20728368242771988,-0.049304838037252434,0.17141727046624916,-0.19633767232704372,-0.13692081211210064,0.13254908190940154,-0.18150345158267286,0.1281797603187344,0.07622788739776327,-0.1987776230224397,0.1729347830302769,0.06859264617662525,0.17401124239489266,-0.06414155499725283,0.13346769281855503,0.02898910299532887,-0.062269065072496056,0.11606875440632411,-0.1480737081680231,0.12095062508308847,0.20656891810570963,0.03009713886081255,-0.17214926491994403,-0.10129695087634634,0.00017723458349947507,0.14980553539443223,-0.15285933305059948,0.04444065888071396,-0.029397308623172164,0.15396303242690484,0.17677807734603326,0.034751434915745096,0.19625153483114344,-0.05643442074534621,0.1824630605921286,-0.025083296579144154,-0.12361496839538304,0.06578069788272652,-0.06339272580311803,0.05367834698598245,0.06928936177297344,-0.03744907752087828,0.12438805417052377,-0.10521652711974663,-0.059912302374842054,-0.13994863664161614,0.11440776306080659,0.1493061757723863,-0.11734595696392593,-0.04415297744503287,0.007354535931912409,-0.18411205361664287
2,5,11,0.05516152321478848,-0.12830520786961924,-0.2998789665331626,0.15041582150322114,0.23900556343085874,0.06066974533321711,-0.08254939943645923,0.1225472558973209,0.14059129045071755,0.28905371366223326,0.20524535837586394,-0.10478274945669032,0.20765309559951323,-0.28930742264609144,0.26176741026344763,-0.26205649288806576,-0.016360254690865182,0.32676294873186656,0.1736100325814453,0.16953692909297502,0.024938690292828424,0.08734533663178075,0.27466493489945054,-0.2710056157614459,0.29426759249027984,-0.13290792013552286,-0.07728753359611298,0.11300035243832085,-0.25394320347735316,0.2618564201069697,0.08822204337178131,0.1289034948798693,-0.22941428537391498,0.1599647588598356,-0.14883571409413318,0.1564143223599463,0.11127016116263894,-0.22535103073409588,0.026887685566664172,-0.13827174101872172,-0.23338837568875245,0.23796845119839402,-0.16000931817703662,0.09870789004932269,0.1876680892785787,-0.07432435420361878,0.2027717314373886,-0.12517973841951383,0.11499516533135831,0.07977390900464369,-0.038788346408888646,0.08939516842292337,-0.1301513452854365,-0.2183100239875992,0.25278958983855443,,,,,,,,,,,,,,,,,,,,,,,,,,,,,,,,,,,,,,,,,,,,,,,,,,,,,,,,,,,,,,,,,,,,,,,,,,,,,,,,,,,,,,,,,,,,,,,,,,,,,,,,,,,,,,,,,,,,,,,,,,,,,,,,,,,,,,,,,,,,,,,,,,,,,,,,,,,,,,,,,,,,,,,,,,,,,,,,,,,,,,,,,,,
3,1,5,0.0027863202604931927,0.4063333043933044,-0.2510601032249866,0.014368588407780805,0.27172064455117306,,,,,,,,,,,,,,,,,,,,,,,,,,,,,,,,,,,,,,,,,,,,,,,,,,,,,,,,,,,,,,,,,,,,,,,,,,,,,,,,,,,,,,,,,,,,,,,,,,,,,,,,,,,,,,,,,,,,,,,,,,,,,,,,,,,,,,,,,,,,,,,,,,,,,,,,,,,,,,,,,,,,,,,,,,,,,,,,,,,,,,,,,,,,,,,,,,,,,,,,,,,,,,,,,,,,,,,,,,,,,,,,,,,,,,,,,,,,,
