,n,m,0,1,2,3,4,5,6,7,8,9,10,11,12,13,14,15,16,17,18,19,20,21,22,23,24,25,26,27,28,29,30,31,32,33,34,35,36,37,38,39,40,41,42,43,44,45,46,47,48,49,50,51,52,53,54,55,56,57,58,59,60,61,62,63,64,65,66,67,68,69,70,71,72,73,74,75,76,77,78,79,80,81,82,83,84,85,86,87,88,89,90,91,92,93,94,95,96,97,98,99,100,101,102,103,104,105,106,107,108,109,110,111,112,113,114,115,116,117,118,119,120,121,122,123,124,125,126,127,128,129,130,131,132,133,134,135,136,137,138,139,140,141,142,143,144,145,146,147,148,149,150,151,152,153,154,155,156,157,158,159,160,161,162,163,164,165,166,167,168,169,170,171,172,173,174,175,176,177,178,179,180,181,182,183,184,185,186,187,188,189,190,191,192,193,194,195,196,197,198,199,200,201,202,203,204,205,206,207,208,209,210,211,212,213,214,215,216,217,218,219,220,221,222,223,224,225,226,227,228,229,230,231,232,233,234,235,236,237,238,239,240,241
0,22,11,-0.05736313207309624,-0.18559914435244182,-0.09728848949711162,0.14418530182886077,0.2255456159029662,-0.18144249002617202,-0.014448730231643538,-0.09693809057605643,0.15515925651886384,-0.2523787645599554,-0.2676354349438987,-0.1542771039999535,0.2089687722947292,-0.07315034243319896,-0.15652787158146222,-0.1508891283457516,-0.2063638899802954,-0.30248794786206906,0.23864073602403899,0.10214700520279542,-0.2129970619053879,0.11043310302213157,-0.21510543406250207,0.5517221454993559,0.49804160573166667,-0.2967906616878798,-0.2935013415504257,-0.6817353894685432,0.17864103841182258,-0.001707523965600164,-0.3484951767502212,-0.14494964346701927,0.45532600218429553,0.08579247686209772,-0.12556199452548958,-0.1441788212216528,0.10193094159232732,0.18573955279382545,-0.21224144576518877,0.07746729766562424,0.23118438485218978,-0.039461908382094575,-0.07731709835654531,0.19579690842752223,-0.0050043080805165395,0.10866818334761011,-0.6763116544885405,-0.13288550405310584,-0.8785137729374656,0.8886107572074201,0.5032272431392044,0.059925847017848255,0.6104272498412183,0.23887718371484729,0.23929368955831978,0.46606009382916225,-0.009955302289093115,0.07834318559759063,-0.8086772178193931,0.40255882710691093,-0.191455090014413,-0.5311466562849866,0.44976537253225485,-0.9270054031960097,0.13779968068135642,-0.35075850277431064,0.7972178521304994,-0.14165424163686924,-0.2399887387669032,0.07505706814494517,0.4890654711103957,-0.4171285868690039,-0.515026012697082,0.44274578562467076,0.6796831240161995,-0.2068512070804802,-0.5374343521620515,-0.16081358278377847,0.4078036797633432,0.14831768378622326,-0.447554053433359,0.48362310983636025,-0.59686611522757,-0.27580901103595706,0.4705282637910783,0.40666807661029414,0.04705600989463318,0.6883393260173589,0.00979497790812713,-0.29122714951801976,-0.14114356191993058,0.5016495849524367,-0.275806423393222,0.4945433502261204,-0.2558043184188157,0.23448634255434617,-0.3082291343772765,-0.00603869859919267,0.2005944436220189,-0.2638174616190902,-0.07602404529180831,0.002557067631852268,-0.04109268632065765,-0.1957311781439278,-0.20091187512668657,0.20899344675455,0.00010596062244055192,0.12127299816249565,-0.06599305326611131,-0.2414155270811723,-0.5614034433149325,-0.18620608047755596,0.08960419149092999,-0.08570762815883709,-0.3619374359588354,0.35622293455380877,0.00717618503364543,0.18809083256970857,-0.1746415120869795,0.3080336523261135,-0.4641746274790589,-0.23103032973190438,0.3128763516696342,-0.09733174660545071,0.3215013226942471,0.3050917942490511,-0.445912447294862,0.30036877797514583,0.08732343995924995,-0.3867045682616456,-0.17129665144970585,-0.39770758084460484,-0.35552238659724084,0.45595932917230525,0.12220076281848087,0.33533714482800614,0.3009572684329173,0.1785839169454582,-0.0609997857878865,-0.4754412763245385,0.06944821751674395,-0.0003793191009851844,-0.01965399775342125,0.41942538042627114,-0.18034619362218993,-0.19903650526041294,-0.6364843030658304,-0.09473540903368342,0.22523725126230726,-0.20276459045544495,0.40719544208205705,-0.2672014808366993,0.3203694655352123,-0.27369274060358856,-0.19159546316465023,0.41936995348055056,0.33912465022751453,-0.5703623219159522,0.56058995252698,-0.04099517322429533,0.15995051192480864,0.2744919800908074,-0.07300646543682512,0.14011295890547557,-0.044529600778267876,0.0584865475406194,0.5752655910829939,-0.3956487588990181,0.36957407344323173,-0.24782384324411433,0.3086641119057206,-0.18613626568292502,-0.11507664379017189,0.595725141690584,0.10643709192243515,0.08534016127287142,0.186597603467475,0.25738150334848103,-0.288516570072596,0.01855886361627396,-0.1595155311665603,-0.41772586176377036,-0.028940189607811143,-0.09543130251567176,-0.134791951995133,0.10835189278364261,-0.08793057863635878,-0.030794523454005095,-0.5226634780110129,-0.023812172167960957,0.6452195158158182,-0.7156661474911865,0.12742508071030045,-0.2721525380312352,-0.4376767438323669,-0.14531063067993022,-0.10148286543692553,-0.1858608355116178,-0.38649533863190366,0.4525922689212142,-0.030725036990046105,-0.27638290599212856,0.1567533708818266,0.39882354617693383,-0.3781216387438806,0.5643729887181204,0.05764271761587318,-0.3349840396371489,0.13915998133852495,0.11775676761324823,0.06818860014167505,-0.4114791923585475,-0.16687656647033935,0.1579500913414801,0.9417993413420336,-0.44251830002519016,0.20140170614228792,-0.06612360772392545,0.19273366538263773,0.1260343731994392,-0.7175205839259312,0.173794343474858,0.07296295719374385,-0.6798990314155009,0.06954218511016533,0.7998086946648667,-0.002036538072168539,-0.3398329752178614,-0.49000276466581044,0.14527751218574214,-0.4014422793723413,-0.12224732792065936,-0.3377477842972001,-0.03622501082236351,-0.17282272265711418,0.3845484041347837,0.5412121675909934,-0.33582704814408726,0.31958507513228396,0.2948051689157768,0.03534617515449272,0.34296831102532666
1,11,22,-0.26023210200520364,0.10679545051190298,-0.31592778953754186,0.17474476070905917,0.5143233358800079,-0.0636080384117321,0.137285044357928,-0.19877775669544115,0.09143896405593677,0.1108164436602614,0.04579640617623994,-0.14968403420073026,-0.3412797714401534,0.21131593709720775,-0.09925686378298389,0.339743986827985,0.18621453548895509,-0.15138982467137013,-0.16462751854777963,0.22993589027711708,0.08227432387401062,0.13754929493182663,0.055731481586845634,-0.1846917718074926,-0.05922897567164851,0.10000412645564441,-0.43684161362344964,-0.016791294802794426,-0.5223258994528045,0.00704177939792301,-0.4288411817824737,-0.06353771061301121,0.22039505498518547,0.17073796185672432,0.3659409713255763,-0.4780416155053543,0.0329734623332453,-0.47006236296707893,-0.0030726802008817287,0.33843987741324977,-0.3410312178471849,-0.0075429033766369015,0.7005772702103102,-0.07276734656299323,0.09962328448490994,0.05652885611739252,0.06609031954050283,0.19878318890479246,-0.3473524305121371,-0.06025065182552803,-0.1929132523152787,0.4312692698704794,0.11209021728025725,0.20169760663203282,0.21871990284467843,0.25644493089642134,0.10204783070806812,-0.024076912973880808,0.08943890529241301,-0.10376312653622483,-0.01984134366890322,0.39964290110579026,-0.37174249443193613,-0.3596921701830132,0.5030309760402077,-0.07035068273254688,0.12319687212872091,-0.3165971183604273,-0.30976524331741584,0.010999369733566718,-0.6365669991707763,-0.19351784221111987,0.13892408052747185,0.17405519737739478,-0.14842747094857917,0.053385615098844305,0.07525127682525569,-0.033002371546607075,-0.15964388306630478,-0.09111134490971685,-0.05769262120231818,-0.021420949298175014,-0.2873367630117277,0.08126023135020533,0.17267594125660024,0.31089974340176035,0.04630709768352306,0.2446769045721114,0.0775026443829968,0.15560716340969913,0.33793522344040455,-0.09356489501522602,0.012474232865806036,0.5357319187538266,0.016371863137509633,-0.2828887857450555,-0.18397086862140033,0.05449969407589903,-0.11968070298738245,-0.03911795911465851,-0.1813423497713927,-0.10338594653915328,0.028965737171011627,0.20522751694581828,0.03458779120422519,-0.09851077501084739,-0.13058120130821654,-0.3195417997635207,-0.22917221694029558,-0.05555393454790493,-0.15098759876760517,-0.028101398947248418,0.43033179210991346,-0.19857916723927804,-0.05469842282520551,-0.18156428202030858,-0.31063437888136197,0.3111458135328144,-0.005015118849163186,-0.1038803093867713,0.21956071976345995,0.10682651970404777,0.2744244546782817,0.32441282312307473,0.32987486975197544,-0.19759170454644234,-0.1310278192319788,0.4028823332860623,-0.07473366789546029,0.1296962969967754,0.11948334581611927,0.13661806506709226,0.00953199288147132,0.008524170100135939,0.3377666745696263,0.15621145440874185,0.05814225983271243,-0.739277443792657,0.25832970782690556,-0.5314565122634991,-0.2861462092026795,0.08329070061188998,-0.3976003868773942,-0.5012987634547321,0.4630029470595608,-0.1696039108213631,0.4593062878910214,-0.18403173188012895,-0.3152152254635173,0.2009561982995016,0.49806507484464657,-0.2758539605890779,-0.3870090533634988,-0.366569902860668,0.18417760867473995,0.11205552011582555,-0.5791279231558487,-0.04054507415532345,0.3568566969659854,-0.038224483664895274,0.013816670218299507,0.02535125115749971,0.25242224598384627,-0.04299308370885703,0.09781005030889744,-0.0597516165958503,0.011345853437147118,-0.1408068075940873,-0.18148930151923695,-0.3456095892016893,-0.03838488928019951,0.2833278487026012,-0.16823981385697123,-0.20550408742933915,-0.11458524313862084,0.0805556708585334,-0.06288223553566102,-0.06429525945669605,0.33699930067178513,0.11222761454494502,-0.40696141518258505,-0.21803829192941296,0.11476690753839491,0.21084223985730796,0.20585263679613078,0.10486374460801517,0.05938374976373938,0.34257585304828075,0.14228868009685713,-0.10202436654099052,-0.08589331432762728,-0.022147981435633363,-0.20283159448411908,0.46833229705597385,-0.23391356748822267,-0.3114113084789843,0.3387651089183198,0.2691437670439512,0.04923442443479362,-0.006125492928799661,-0.06966811430324021,0.019342895286411647,-0.039947806717642385,-0.35389861316149096,-0.046026492929407914,0.22623088814380438,0.02052014333539346,-0.10030528577200983,0.13170941728527236,0.025698878212074876,0.30386511410551353,0.15693788103663542,0.6062956523268032,0.015643178362402456,-0.1755359098718492,-0.589669836581574,-0.12962091769563153,0.15004415414793604,0.1104849095298269,0.25696146103635187,0.16841647423214298,0.04164911513565306,-0.7852999246981421,0.003961064263791246,0.6398958404007888,-0.21877556965491357,-0.06741387178695454,-0.06264552386637685,0.0948252571165058,0.08299546057292802,0.11541511508502326,-0.19858462902466634,-0.14634511893025157,0.0011699273733213492,-0.4427495909880183,-0.24004698057377072,-0.1774857859860313,0.17691427642740626,-0.006077357764871592,-0.32410354355982723,0.1982088573895663,-0.16832509867796652
2,5,11,-0.21927815911708004,0.1535382858368562,0.26167484046242656,-0.26312440935583536,0.0578683040170858,-0.2906166302237538,-0.1867354482795971,0.05536699646962373,-0.29859928183761797,-0.2997938126133404,0.09673983487242444,-0.7357416460690188,0.9326993946477187,-0.057846314127274236,0.5769412357214105,-0.4365336191300993,0.5167443998698797,-0.9415721375993678,-0.1102525915951113,0.6062698340833712,0.6308033868645776,0.7076176505144093,-0.21942842200293583,0.08751456471120278,0.49601251914280137,-0.3377247951456816,0.08921690091506623,0.403503989151401,0.06778189408886684,-0.22341934092849522,0.3080841339328333,-0.25977998149654397,-0.14780150055316105,0.26639258128081017,0.07140957006426697,0.03344585407978498,0.1178858886613047,-0.25693063311198194,-0.24983394380768376,-0.19841374515961305,0.11960441169655624,0.0023026451860725765,-0.29481446350628554,-0.0056243578768888835,0.040422477560866574,0.5094012315966892,-0.6261126482242766,0.413077836916449,-0.22008113631425597,0.2743228516331534,0.6365420532876742,-0.9133027648676961,-0.6454653043940294,-0.462274722726469,-1.0206938942085917,,,,,,,,,,,,,,,,,,,,,,,,,,,,,,,,,,,,,,,,,,,,,,,,,,,,,,,,,,,,,,,,,,,,,,,,,,,,,,,,,,,,,,,,,,,,,,,,,,,,,,,,,,,,,,,,,,,,,,,,,,,,,,,,,,,,,,,,,,,,,,,,,,,,,,,,,,,,,,,,,,,,,,,,,,,,,,,,,,,,,,,,,,,
3,1,5,-0.2082173807315085,-1.6394664212205818,0.5736525699434588,-0.4114454919600132,1.730793138761019,,,,,,,,,,,,,,,,,,,,,,,,,,,,,,,,,,,,,,,,,,,,,,,,,,,,,,,,,,,,,,,,,,,,,,,,,,,,,,,,,,,,,,,,,,,,,,,,,,,,,,,,,,,,,,,,,,,,,,,,,,,,,,,,,,,,,,,,,,,,,,,,,,,,,,,,,,,,,,,,,,,,,,,,,,,,,,,,,,,,,,,,,,,,,,,,,,,,,,,,,,,,,,,,,,,,,,,,,,,,,,,,,,,,,,,,,,,,,
