,n,m,0,1,2,3,4,5,6,7,8,9,10,11,12,13,14,15,16,17,18,19,20,21,22,23,24,25,26,27,28,29,30,31,32,33,34,35,36,37,38,39,40,41,42,43,44,45,46,47,48,49,50,51,52,53,54,55,56,57,58,59,60,61,62,63,64,65,66,67,68,69,70,71,72,73,74,75,76,77,78,79,80,81,82,83,84,85,86,87,88,89,90,91,92,93,94,95,96,97,98,99,100,101,102,103,104,105,106,107,108,109,110,111,112,113,114,115,116,117,118,119,120,121,122,123,124,125,126,127,128,129,130,131,132,133,134,135,136,137,138,139,140,141,142,143,144,145,146,147,148,149,150,151,152,153,154,155,156,157,158,159,160,161,162,163,164,165,166,167,168,169,170,171,172,173,174,175,176,177,178,179,180,181,182,183,184,185,186,187,188,189,190,191,192,193,194,195,196,197,198,199,200,201,202,203,204,205,206,207,208,209,210,211,212,213,214,215,216,217,218,219,220,221,222,223,224,225,226,227,228,229,230,231,232,233,234,235,236,237,238,239,240,241
0,22,11,-0.17639092378862464,0.23959226914229842,-0.010435841408675725,0.12855692853073314,-0.22028356020362141,0.2681695285211737,-0.09048610016008003,-0.2541286330433841,-0.14834147916598983,-0.007030807799441399,0.015733999703006752,0.09644579403285211,-0.09687563430635798,0.03698150347961425,-0.30070228690087153,-0.11247530414490206,0.24409064922017715,0.25933748704202536,-0.12576061787750786,0.25150701196436986,0.2367999581795039,-0.12788208004824142,-0.027828218283430278,0.18209679477883597,0.07969596229120152,0.007371300427236251,0.20785831480988798,-0.1932232686048334,-0.011176209250443353,0.12108677216811968,0.17483335862182067,-0.1428109453040722,-0.17731777983544367,-0.14695753730084468,-0.116874757288619,-0.1669560590994687,0.1275964512155123,0.21327315272216443,-0.044640948106235034,-0.2971448490126984,0.0797809687911768,-0.18469895955529758,-0.23743085160328709,-0.055524933613396395,-0.0328727104800548,-0.16407498449310093,0.18036555016923522,0.006100081350090154,-0.08928675722853328,0.03113871718181585,-0.20357897975834907,-0.04896397989231917,0.2373351531961328,0.16570932537833674,-0.0014788489899812344,0.25274727558612886,0.10433705386523368,0.14834456565932033,-0.1233654886405803,-0.23359517511695294,0.10526443132490448,0.08112679579222137,0.07253748660181725,0.21201382792882567,0.25842829851084154,-0.22692947182342774,-0.08948674503376755,0.041244253047257776,-0.05704396233249279,-0.14876793490085272,0.14158919819583904,0.17883500399670169,-0.0870807538288051,-0.040692717854637975,0.2354174144321543,-0.08309158325192105,-0.009585153241072095,0.20382359274715253,0.11577658521736343,-0.033504170719377356,0.28137179622934916,-0.007177574907022646,0.011322763156275452,0.09997978676639735,-0.214341417809291,-0.06455110595073237,0.21228468942005957,0.15983813657424362,0.03925966144284117,0.1640497528634889,0.19093418537177423,-0.1422492227888436,0.04475367964260103,-0.1908585231258917,-0.2701743928697916,-0.29071113805067217,0.11220620286939055,-0.2164742168142329,-0.08032539004983857,-0.10954331689655966,0.004366486045972255,-0.2064706885561395,0.17421520095502765,0.14407273000449053,-0.0002180591866537603,-0.028653024229379265,0.11103507225145794,-0.11277631739154984,-0.051136120711584694,-0.21651176105868958,0.12046052171705084,0.006310883613183337,-0.031173662370780297,0.08439875450611059,0.17162618075457003,-0.1166663552623811,-0.16643473315418172,-0.05126642090728687,0.252785353684419,-0.008884032103495731,0.22019509833492729,-0.11887845578559207,-0.25804189787390414,-0.14271655385458265,0.08376557440352297,-0.19187405598561866,-0.06796157954891105,-0.17799086937671924,-0.1575563825755808,0.11563895787111658,0.15624142062955257,0.055803566871264955,-0.28486808613015635,0.12510562057926475,0.04441073416497147,0.0774805095455756,0.031368106956798585,0.2281903615703324,0.18439099270091996,-0.1932388454717832,0.033545617062933755,0.0032349768003570867,-0.14971217836734943,0.22600557241350985,-0.11786413066147217,-0.2730118958893934,-0.1703405834273218,0.015432876202219297,-0.2660612848651802,-0.10917644251595533,-0.23959084732029975,0.0020617169308373086,0.28069228402287016,-0.12279393380297805,0.23854413077189118,0.018901216604157667,0.0971609609767909,0.3003133009043962,0.060028305047775184,0.10275129230963036,0.22194167708105275,0.13823660203305407,0.2583500924388283,-0.27929987754914926,0.0654820992195814,-0.03962188732342959,-0.16518335792601674,0.17853649182894177,0.21889292749951492,-0.0803801199469781,-0.2747160976961083,-0.052817963722110894,0.07326441066483676,-0.2557355333444919,0.24290874794645212,0.18840575238863044,-0.14575973189984226,-0.2907701987580148,0.0604915103476548,-0.22728898614038529,0.13359646448346232,-0.04696313854920494,-0.002139782024262046,-0.021952632458240275,-0.18328824289282267,-0.23998832203890944,-0.25142834312154144,0.24377546129222988,-0.033412246238205406,-0.16872352587131534,0.27937117898512254,-0.1715674140465049,0.22174970374664651,-0.06349343818477948,0.1118372778627179,-0.024589276510912576,0.13852620408802874,-0.1112199462543519,0.2591750845938907,-0.22824082636412546,0.26597346796812826,-0.005659915151273371,0.15861600021494046,0.048288687691592974,0.07686521900269766,0.27063587135893175,-0.10073666613224425,0.039795440157512116,0.07041128562082978,0.18494522891357396,0.08023869290320976,-0.248030719996486,0.17421582809513483,0.1684400139241685,0.25345061881107456,0.14744818380065086,0.2598419610075045,0.1538540239932654,0.05254863129643883,0.12934414766043376,0.02712673570865874,0.1249233679997281,-0.03729784744688857,0.06431069514154396,0.15777187839182014,0.02060116806350129,0.2187103001144743,0.25562050250587687,-0.09191361281451639,-0.002180265217352526,-0.1763052883977034,0.13501354907818983,0.10291140416697236,0.1292089565534472,0.07235631019121513,-0.14836467064731182,-0.2652682080771195,-0.14960841690267768,0.276708584227012,0.0434052038430128,0.1711514260810074,0.05821473828862301
1,11,22,0.08737505587559317,-0.03193729461575607,0.08942538478176752,0.08528429824503596,-0.010665643233804162,-0.12084746366425425,-0.002965077660375595,-0.14773292762397477,-0.03850273996706017,0.027197500387769927,0.14517740019707912,-0.0812331249512027,0.14711741116062607,0.021595624033237414,0.1621315285305506,0.05333657272983675,0.10702949954133276,0.060046543976751895,0.012412656789486812,0.021784882407257813,0.09240950307737424,-0.15157846596644908,-0.09695518060758869,0.12169153040633705,-0.017961918406822458,-0.06649657088312767,0.1081230564303482,-0.18508538531738233,-0.10320988967704806,0.015457529397232024,0.09939603379297342,-0.012532194380994606,0.06167076314468079,0.002183260045384292,-0.040410622214794426,-0.06800103762683807,-0.058807498699136276,-0.0853395568966583,0.05835300536052623,-0.10779034984690572,0.1243846414250373,0.045796248843651854,0.08413737431456894,-0.09056614231833063,-0.009432722095144907,-0.08155876520490916,-0.018840615605361835,-0.015774193751435493,0.07488218328437175,-0.03870407327169774,-0.13887319548330224,0.019163975350392434,-0.09845794208659134,0.07216002144926882,0.0910688656523406,-0.004578167809431861,-0.06345813637692678,-0.19143385624659837,-0.17495690077912632,-0.09728117396646159,0.005494457673122663,-0.08770410175657875,-0.16699783267873256,0.1397621776741302,0.10585980586376734,0.12803935740189454,0.14128200253367088,0.1231101255793965,-0.14576687393554622,-0.08395672609134318,0.006906790597601994,0.14329394112475727,-0.04477318679074882,0.14028974766129929,0.21062082797429432,-0.011637489833366975,0.21147994881368454,-0.03299996285043389,-0.12401888586887919,0.1135902816685389,0.025065132755130875,-0.09137222005576105,-0.123820919312894,-0.18956823193913908,0.09030577309072356,0.12270917631097773,0.2029294969364596,-0.12966749693745663,-0.0915063594227458,0.1567577442905048,0.007716248134304446,0.034959487556991485,0.146954588991086,-0.20075239470190406,0.19531572302536643,0.1452316513362256,0.12692755922218274,0.019735803829633407,0.036005268023011384,0.18914573768611845,-0.12309044590987674,-0.13580499630414908,-0.1788579289394066,0.12865984406557546,0.08471360553090318,-0.0697800415148165,-0.08133322968548615,-0.11725228875095103,-0.16594468449585847,0.007911750240836953,-0.08525310928269395,0.21297094442960912,-0.16774444395563137,0.1006614986853059,0.0321462038681786,-0.03639545492286497,0.20385220674380555,-0.09217805004122752,0.12283674240541212,-0.14787445979607905,-0.12598763905665256,-0.12001113213238167,0.2105921543483355,-0.1255725017655526,0.12374189946860654,0.0031457140037213934,-0.09651371816930197,0.07703304020001059,0.11534795588856817,0.0978706769807908,-0.18744746671091295,0.06437800852684496,0.05358734405662774,0.10666334856790556,-0.11034007502691384,0.016187237318506898,-0.2062202628416541,-0.020490782125957587,-0.11133059345676918,0.07212330899025851,-0.09295591673666821,-0.2131882858248278,0.0650205276387101,0.05135143359310982,-0.05981814169432628,-0.04354922969550964,0.1835525973170702,-0.07309225727397764,0.06041731488680871,-0.09682198682742234,-0.07647224078631909,-0.1641388805931746,0.06433348099788845,-0.045421509573195226,-0.03665328111965241,0.06135631812218237,-0.14598285879666018,-0.05004194261446607,0.14767261807750837,0.08011649494441023,0.1382096552803059,-0.1488835826091344,-0.04890589506686622,0.10504684030109596,-0.05429953166952839,-0.16913103726213843,0.18204959204830987,0.0812218823453951,0.056807243799696816,-0.12927313535577914,0.16861364751755428,-0.21085663663031165,-0.1949173409256626,0.20586665515703306,0.2036795079626824,-0.1577502517879026,0.05239924179491468,0.19922954060011785,0.07382963068059802,-0.2112102558959291,-0.14774692562881414,-0.15063919053388047,-0.17350093379944068,0.056843816962646385,0.1599028502939152,0.021778248201607644,0.14006092058165606,0.196958304405109,-0.12838598104911575,0.1581594801988046,-0.2082227497402852,-0.14557970099425183,0.10976049924137253,0.21148224267745258,0.1898533652706258,0.10457530495838671,-0.20624430973792693,0.059462503247078184,-0.126937884949617,-0.06348270523840514,-0.1973064581687885,-0.0415940079899089,-0.09253289812616772,0.088568198523213,-0.08156724597930329,-0.02089934652755102,0.1888877289852579,-0.06381189439742839,0.1821365102800805,0.007979107181329012,-0.09623596591030463,-0.008453884698536085,-0.00799417956481813,-0.194726957130419,0.06291210766725187,0.2013119138370664,-0.11002373988524161,-0.20336233580321972,0.08802556936972628,0.12576313076998838,-0.052123050481381356,0.12700817705694387,-0.2095117604036681,0.09969381125517883,0.1748561593221419,-0.14188389396658857,0.1376652549391463,-0.02105636655563846,0.10016095830376323,0.1734507955594842,-0.17355605924398693,-0.016879082085269243,-0.14661853514213022,0.1438440079464666,0.18824226472335914,0.019452392951313346,0.007684884269762816,-0.19756886120414197,0.19133804996955245,-0.14244386399311332,0.05610723055309142,0.1350869297011741
2,1,11,0.3012856658894655,-0.23474748551722205,-0.2457599914098822,0.2922545156911392,0.13260917714845544,0.04422986027282957,0.18796284059324894,-0.19011888041518912,-0.01754016984124997,-0.25731395008246116,0.2834259325562301,,,,,,,,,,,,,,,,,,,,,,,,,,,,,,,,,,,,,,,,,,,,,,,,,,,,,,,,,,,,,,,,,,,,,,,,,,,,,,,,,,,,,,,,,,,,,,,,,,,,,,,,,,,,,,,,,,,,,,,,,,,,,,,,,,,,,,,,,,,,,,,,,,,,,,,,,,,,,,,,,,,,,,,,,,,,,,,,,,,,,,,,,,,,,,,,,,,,,,,,,,,,,,,,,,,,,,,,,,,,,,,,,,,,,,,
